{"output_weights": [[0.1433623416882281, -0.4452881513319284], [-0.44613473923761593, -0.3435854944748411], [-0.2835105845598451, 0.3703707550015719], [-0.20437036294041577, 0.4618894681326702], [0.391161306877865, 0.13914901489732645], [0.2656960285031893, -0.40746855245508656], [-0.2317818392399559, 0.15685716802326588], [-0.5619595133858161, 0.15845735038203665], [-0.5530299410427109, -0.20288615016047992], [-0.03113406095012818, 0.18882508584344443]], "hidden_neurons": "10", "input_weights": [[-0.051622107599892116, -0.33097727467357974, -0.030103456011109524, -0.3888349087179575, -0.13281743885359587, -0.014471566629208484, 0.23411883189905333, -0.20813177403770647, 0.18541618464697102, -0.2467999234031257], [0.157328346316335, 0.03655637604624186, -0.5155578913665159, 0.09258805344972584, 0.0005926036270260604, 0.03441927948524387, -0.0715131575049764, 0.36568215983089003, 0.47938091087573337, 0.03648320346581255], [0.40656265358726157, 0.12176400339143728, 0.016269378956752994, -0.40074767489554747, 0.25980509992628525, 0.00861037265125122, -0.5290362144334804, -0.3938362098682725, 0.4460629478403532, -0.4096037641045312], [-0.48691696682914887, -0.73984732202487, 0.014860513555412942, -0.047723061957727186, 0.07093429350703238, -0.2982810571474553, 0.012735107356310017, -0.40654054180261956, -0.516850761152311, 0.04549492833473663]]}