{"output_weights": [[-1.1394854913839836, -0.7436369175675988], [-0.6285345514197874, -0.5538734615686227], [-0.7356626249103795, 1.544557407468255], [-0.11091934921719548, 0.2258749562973232], [1.1576987457025891, -1.3728784803347687], [0.8797122778879166, -0.31839673636403254], [0.3294704509330921, 0.6642804688819104], [-1.3795563657135752, 0.798833620443417], [0.5355690040822022, 0.5573361021495749], [-1.2841563185407436, -0.08370827942601243]], "input_weights": [[1.2472710848626978, 0.875583199669021, -0.6857866218306464, -0.23625032760433015, 0.3302210301434311, -0.3636352414400723, -0.7535277286325607, 0.22577337297236338, -0.9314065878875981, 0.8943443708981432], [0.553029281908838, 0.4510834326167664, 0.06657296370225708, 0.22172923068064201, -0.06709191853438971, -0.2122512152772338, 0.17178630640038034, 0.22130000788596563, 0.36113329230015234, 0.44322130400563714], [-0.5164803530730753, -0.043068724619916544, -1.8014605490352533, -0.1399445214187548, 2.0341045557231223, 1.0150410787458939, -0.23151435972013834, -1.7833602328394342, -0.03863722495250054, -1.140422813647112], [-0.07506196215391779, -0.26232976322364515, -0.056981696465712044, 0.05771545096348065, -0.008605969974554806, -0.09427995676580625, -0.46380231857980986, -0.01678578326308586, 0.06174306075207937, 0.0635314843638437]]}